digraph Tree {
node [shape=box, style="filled, rounded", color="black", fontname=helvetica] ;
edge [fontname=helvetica] ;
0 [label="age <= 30.5\ngini = 0.704\nsamples = 14\nvalue = [2, 6, 3, 3]\nclass = Classical", fillcolor="#cdf8c9"] ;
1 [label="gender <= 0.5\ngini = 0.656\nsamples = 8\nvalue = [2, 0, 3, 3]\nclass = Dance", fillcolor="#ffffff"] ;
0 -> 1 [labeldistance=2.5, labelangle=45, headlabel="True"] ;
2 [label="age <= 26.0\ngini = 0.48\nsamples = 5\nvalue = [2, 0, 3, 0]\nclass = Dance", fillcolor="#bddef6"] ;
1 -> 2 ;
3 [label="gini = 0.0\nsamples = 3\nvalue = [0, 0, 3, 0]\nclass = Dance", fillcolor="#399de5"] ;
2 -> 3 ;
4 [label="gini = 0.0\nsamples = 2\nvalue = [2, 0, 0, 0]\nclass = Acoustic", fillcolor="#e58139"] ;
2 -> 4 ;
5 [label="gini = 0.0\nsamples = 3\nvalue = [0, 0, 0, 3]\nclass = HipHop", fillcolor="#d739e5"] ;
1 -> 5 ;
6 [label="gini = 0.0\nsamples = 6\nvalue = [0, 6, 0, 0]\nclass = Classical", fillcolor="#47e539"] ;
0 -> 6 [labeldistance=2.5, labelangle=-45, headlabel="False"] ;
}